<?xml version="1.0"?>
<opencv_storage>
<opencv_ml_svm>
  <format>3</format>
  <svmType>C_SVC</svmType>
  <kernel>
    <type>RBF</type>
    <gamma>1.</gamma></kernel>
  <C>1.</C>
  <term_criteria><epsilon>1.0000000000000001e-05</epsilon>
    <iterations>100</iterations></term_criteria>
  <var_count>2</var_count>
  <class_count>7</class_count>
  <class_labels type_id="opencv-matrix">
    <rows>7</rows>
    <cols>1</cols>
    <dt>i</dt>
    <data>
      0 1 2 3 4 5 6</data></class_labels>
  <sv_total>23</sv_total>
  <support_vectors>
    <_>
      1.23800003e+02 5.85999985e+01</_>
    <_>
      1.58100006e+02 7.78000031e+01</_>
    <_>
      1.38300003e+02 6.70999985e+01</_>
    <_>
      1.38199997e+02 6.73000031e+01</_>
    <_>
      1.58399994e+02 7.80999985e+01</_>
    <_>
      1.43600006e+02 7.09000015e+01</_>
    <_>
      1.50899994e+02 7.56999969e+01</_>
    <_>
      1.57500000e+02 7.74000015e+01</_>
    <_>
      1.56240814e+02 7.72216721e+01</_>
    <_>
      1.36176010e+02 6.70638580e+01</_>
    <_>
      1.56408020e+02 7.75421524e+01</_>
    <_>
      1.42167587e+02 7.08678131e+01</_>
    <_>
      1.55962143e+02 7.78905029e+01</_>
    <_>
      1.34963760e+02 6.66597748e+01</_>
    <_>
      1.36566147e+02 6.62278290e+01</_>
    <_>
      1.34949814e+02 6.60048828e+01</_>
    <_>
      1.37221039e+02 6.66876450e+01</_>
    <_>
      1.74786804e+02 1.02999298e+02</_>
    <_>
      1.60518494e+02 1.02999397e+02</_>
    <_>
      1.71623795e+02 1.00087196e+02</_>
    <_>
      1.41819229e+02 7.00039139e+01</_>
    <_>
      1.41791367e+02 6.86801910e+01</_>
    <_>
      1.42209381e+02 6.92375488e+01</_></support_vectors>
  <decision_functions>
    <_>
      <sv_count>4</sv_count>
      <rho>-6.6666666458281421e-01</rho>
      <alpha>
        3.3333587542216642e-01 3.3332824602992434e-01
        3.3333587854790925e-01 -1.</alpha>
      <index>
        17 19 18 0</index></_>
    <_>
      <sv_count>10</sv_count>
      <rho>1.1052667963770627e-01</rho>
      <alpha>
        1. 1. 1. -4.2657162915153707e-01 -2.9504209746911314e-01
        -5.6314722778044779e-01 -3.8856345669999076e-01
        -3.9803068183789253e-01 -4.4401033743658425e-01
        -4.8463456962443469e-01</alpha>
      <index>
        17 19 18 2 16 15 3 13 14 9</index></_>
    <_>
      <sv_count>7</sv_count>
      <rho>-1.2774487984275565e-01</rho>
      <alpha>
        8.7225283745493565e-01 8.7225793033659760e-01
        8.7225317527389279e-01 -5.5193543861367089e-01
        -6.6192457846823860e-01 -6.9163370620325237e-01
        -7.1127021978026406e-01</alpha>
      <index>
        17 19 18 1 4 8 12</index></_>
    <_>
      <sv_count>8</sv_count>
      <rho>1.3297305164113805e-02</rho>
      <alpha>
        1. 1. 1. -8.9037393483546434e-01 -2.6905376775847212e-01
        -6.6621060088102446e-01 -4.3341137526710971e-01
        -7.4095032125792926e-01</alpha>
      <index>
        17 19 18 5 22 11 20 21</index></_>
    <_>
      <sv_count>4</sv_count>
      <rho>-6.6666666458281421e-01</rho>
      <alpha>
        3.3333587542216642e-01 3.3332824602992434e-01
        3.3333587854790925e-01 -1.</alpha>
      <index>
        17 19 18 6</index></_>
    <_>
      <sv_count>4</sv_count>
      <rho>-6.6666666458281421e-01</rho>
      <alpha>
        3.3333587542216642e-01 3.3332824602992434e-01
        3.3333587854790925e-01 -1.</alpha>
      <index>
        17 19 18 7</index></_>
    <_>
      <sv_count>8</sv_count>
      <rho>7.0350889349725798e-01</rho>
      <alpha>
        1. -1.4215776008816275e-01 -9.8354509727599862e-02
        -1.8772224081949362e-01 -1.2954822918506115e-01
        -1.3267018298601221e-01 -1.4799969614595473e-01
        -1.6154738104771557e-01</alpha>
      <index>
        0 2 16 15 3 13 14 9</index></_>
    <_>
      <sv_count>5</sv_count>
      <rho>5.6903064469559261e-01</rho>
      <alpha>
        1. -2.1093449044419132e-01 -2.5294606460467400e-01
        -2.6430800098411078e-01 -2.7181144396702384e-01</alpha>
      <index>
        0 1 4 8 12</index></_>
    <_>
      <sv_count>6</sv_count>
      <rho>6.7109940119290545e-01</rho>
      <alpha>
        1. -2.9679273654325872e-01 -8.9673324062259932e-02
        -2.2206488411531336e-01 -1.4447980258067469e-01
        -2.4698925269849320e-01</alpha>
      <index>
        0 5 22 11 20 21</index></_>
    <_>
      <sv_count>2</sv_count>
      <rho>0.</rho>
      <alpha>
        1. -1.</alpha>
      <index>
        0 6</index></_>
    <_>
      <sv_count>2</sv_count>
      <rho>0.</rho>
      <alpha>
        1. -1.</alpha>
      <index>
        0 7</index></_>
    <_>
      <sv_count>11</sv_count>
      <rho>-1.8485967503741438e-01</rho>
      <alpha>
        3.9084842192531988e-01 2.7038530104024078e-01
        5.1608273787453962e-01 3.5616297808975655e-01
        3.6477151557244680e-01 4.0690482157483393e-01
        4.4413743661244420e-01 -5.7992115544110090e-01
        -6.9541546903744833e-01 -7.2665992583888606e-01
        -7.4729666237214587e-01</alpha>
      <index>
        2 16 15 3 13 14 9 1 4 8 12</index></_>
    <_>
      <sv_count>12</sv_count>
      <rho>-5.1826087652240831e-02</rho>
      <alpha>
        4.5520066221773203e-01 3.1450111486035426e-01
        6.0037481202645604e-01 4.1374377523591893e-01
        4.2423064589825360e-01 4.7327380212156445e-01
        5.1665590111031401e-01 -9.4912423488855924e-01
        -2.8689352301697313e-01 -7.1019389305317826e-01
        -4.6194906667984459e-01 -7.8981999583203810e-01</alpha>
      <index>
        2 16 15 3 13 14 9 5 22 11 20 21</index></_>
    <_>
      <sv_count>8</sv_count>
      <rho>-7.0350889349725798e-01</rho>
      <alpha>
        1.4215776008816275e-01 9.8354509727599862e-02
        1.8772224081949362e-01 1.2954822918506115e-01
        1.3267018298601221e-01 1.4799969614595473e-01
        1.6154738104771557e-01 -1.</alpha>
      <index>
        2 16 15 3 13 14 9 6</index></_>
    <_>
      <sv_count>8</sv_count>
      <rho>-7.0350889349725798e-01</rho>
      <alpha>
        1.4215776008816275e-01 9.8354509727599862e-02
        1.8772224081949362e-01 1.2954822918506115e-01
        1.3267018298601221e-01 1.4799969614595473e-01
        1.6154738104771557e-01 -1.</alpha>
      <index>
        2 16 15 3 13 14 9 7</index></_>
    <_>
      <sv_count>9</sv_count>
      <rho>1.3432358736446354e-01</rho>
      <alpha>
        5.5517702739483887e-01 6.6576341229508995e-01
        6.9566903467480112e-01 7.1541863711137088e-01
        -7.8117009343554333e-01 -2.3606285470374266e-01
        -5.8449358583181632e-01 -3.8024396805332250e-01
        -6.5005760945167623e-01</alpha>
      <index>
        1 4 8 12 5 22 11 20 21</index></_>
    <_>
      <sv_count>5</sv_count>
      <rho>-5.6903064469562004e-01</rho>
      <alpha>
        2.1093449044417689e-01 2.5294606460465852e-01
        2.6430800098410034e-01 2.7181144396706419e-01 -1.</alpha>
      <index>
        1 4 8 12 6</index></_>
    <_>
      <sv_count>3</sv_count>
      <rho>-9.1924805939197540e-01</rho>
      <alpha>
        6.5693601581991978e-01 3.4306398418008027e-01 -1.</alpha>
      <index>
        1 10 7</index></_>
    <_>
      <sv_count>6</sv_count>
      <rho>-6.7109940119290545e-01</rho>
      <alpha>
        2.9679273654325872e-01 8.9673324062259932e-02
        2.2206488411531336e-01 1.4447980258067469e-01
        2.4698925269849320e-01 -1.</alpha>
      <index>
        5 22 11 20 21 6</index></_>
    <_>
      <sv_count>6</sv_count>
      <rho>-6.7109940119290545e-01</rho>
      <alpha>
        2.9679273654325872e-01 8.9673324062259932e-02
        2.2206488411531336e-01 1.4447980258067469e-01
        2.4698925269849320e-01 -1.</alpha>
      <index>
        5 22 11 20 21 7</index></_>
    <_>
      <sv_count>2</sv_count>
      <rho>0.</rho>
      <alpha>
        1. -1.</alpha>
      <index>
        6 7</index></_></decision_functions></opencv_ml_svm>
</opencv_storage>
