<?xml version="1.0"?>
<opencv_storage>
<opencv_ml_svm>
  <format>3</format>
  <svmType>C_SVC</svmType>
  <kernel>
    <type>RBF</type>
    <gamma>1.</gamma></kernel>
  <C>1.</C>
  <term_criteria><epsilon>1.0000000000000001e-05</epsilon>
    <iterations>100</iterations></term_criteria>
  <var_count>2</var_count>
  <class_count>7</class_count>
  <class_labels type_id="opencv-matrix">
    <rows>7</rows>
    <cols>1</cols>
    <dt>i</dt>
    <data>
      0 1 2 3 4 5 6</data></class_labels>
  <sv_total>21</sv_total>
  <support_vectors>
    <_>
      1.23800003e+02 5.85999985e+01</_>
    <_>
      1.58100006e+02 7.78000031e+01</_>
    <_>
      1.38300003e+02 6.70999985e+01</_>
    <_>
      1.38199997e+02 6.73000031e+01</_>
    <_>
      1.58399994e+02 7.80999985e+01</_>
    <_>
      1.43600006e+02 7.09000015e+01</_>
    <_>
      1.50899994e+02 7.56999969e+01</_>
    <_>
      1.43600006e+02 7.09000015e+01</_>
    <_>
      1.57500000e+02 7.74000015e+01</_>
    <_>
      1.56240814e+02 7.72216721e+01</_>
    <_>
      1.36176010e+02 6.70638580e+01</_>
    <_>
      1.56408020e+02 7.75421524e+01</_>
    <_>
      1.42167587e+02 7.08678131e+01</_>
    <_>
      1.55962143e+02 7.78905029e+01</_>
    <_>
      1.34963760e+02 6.66597748e+01</_>
    <_>
      1.36566147e+02 6.62278290e+01</_>
    <_>
      1.34949814e+02 6.60048828e+01</_>
    <_>
      1.37221039e+02 6.66876450e+01</_>
    <_>
      1.74786804e+02 1.02999298e+02</_>
    <_>
      1.60518494e+02 1.02999397e+02</_>
    <_>
      1.71623795e+02 1.00087196e+02</_></support_vectors>
  <decision_functions>
    <_>
      <sv_count>4</sv_count>
      <rho>-6.6666666458279045e-01</rho>
      <alpha>
        3.3333587542245247e-01 3.3332824915495191e-01
        3.3333587542259563e-01 -1.</alpha>
      <index>
        20 19 18 0</index></_>
    <_>
      <sv_count>10</sv_count>
      <rho>1.1052667963770625e-01</rho>
      <alpha>
        1. 1. 1. -4.2657162915153707e-01 -4.8463456962443469e-01
        -3.9803068183789253e-01 -3.8856345669999076e-01
        -4.4401033743658425e-01 -5.6314722778044779e-01
        -2.9504209746911314e-01</alpha>
      <index>
        20 19 18 2 10 14 3 15 16 17</index></_>
    <_>
      <sv_count>7</sv_count>
      <rho>-1.2774487984275565e-01</rho>
      <alpha>
        8.7225283745493565e-01 8.7225317527389279e-01
        8.7225793033659760e-01 -5.5193543861367089e-01
        -6.6192457846823860e-01 -6.9163370620325237e-01
        -7.1127021978026406e-01</alpha>
      <index>
        20 19 18 1 4 9 13</index></_>
    <_>
      <sv_count>6</sv_count>
      <rho>-2.8209181538385875e-01</rho>
      <alpha>
        7.1790818022839242e-01 7.1790818125009537e-01
        7.1790817656140948e-01 -1. -1.5372453803989725e-01 -1.</alpha>
      <index>
        20 19 18 5 7 12</index></_>
    <_>
      <sv_count>4</sv_count>
      <rho>-6.6666666458279045e-01</rho>
      <alpha>
        3.3333587542245247e-01 3.3332824915495191e-01
        3.3333587542259563e-01 -1.</alpha>
      <index>
        20 19 18 6</index></_>
    <_>
      <sv_count>4</sv_count>
      <rho>-6.6666666458279045e-01</rho>
      <alpha>
        3.3333587542245247e-01 3.3332824915495191e-01
        3.3333587542259563e-01 -1.</alpha>
      <index>
        20 19 18 8</index></_>
    <_>
      <sv_count>8</sv_count>
      <rho>7.0350922813534933e-01</rho>
      <alpha>
        1. -1.4214916254450405e-01 -1.6154580142151750e-01
        -1.3267026654393085e-01 -1.2955864351855223e-01
        -1.4800187723657446e-01 -1.8772619701371107e-01
        -9.8348051721209737e-02</alpha>
      <index>
        0 2 10 14 3 15 16 17</index></_>
    <_>
      <sv_count>5</sv_count>
      <rho>5.6903064469559261e-01</rho>
      <alpha>
        1. -2.1093449044419132e-01 -2.5294606460467400e-01
        -2.6430800098411078e-01 -2.7181144396702384e-01</alpha>
      <index>
        0 1 4 9 13</index></_>
    <_>
      <sv_count>3</sv_count>
      <rho>4.3581636250019073e-01</rho>
      <alpha>
        1. -4.9999998290431136e-01 -5.0000001709568864e-01</alpha>
      <index>
        0 5 12</index></_>
    <_>
      <sv_count>2</sv_count>
      <rho>0.</rho>
      <alpha>
        1. -1.</alpha>
      <index>
        0 6</index></_>
    <_>
      <sv_count>2</sv_count>
      <rho>0.</rho>
      <alpha>
        1. -1.</alpha>
      <index>
        0 8</index></_>
    <_>
      <sv_count>11</sv_count>
      <rho>-1.8485967503741438e-01</rho>
      <alpha>
        3.9084842192531988e-01 4.4413743661244420e-01
        3.6477151557244680e-01 3.5616297808975655e-01
        4.0690482157483393e-01 5.1608273787453962e-01
        2.7038530104024078e-01 -5.7992115544110090e-01
        -6.9541546903744833e-01 -7.2665992583888606e-01
        -7.4729666237214587e-01</alpha>
      <index>
        2 10 14 3 15 16 17 1 4 9 13</index></_>
    <_>
      <sv_count>10</sv_count>
      <rho>-3.4329420855450932e-01</rho>
      <alpha>
        3.1497636439533416e-01 3.5781827920618647e-01
        2.9386760046374122e-01 2.8683752935159051e-01
        3.2781283417837298e-01 4.1578280920341260e-01
        2.1783545372174112e-01 -9.9610495409401600e-01
        -2.1882591642636309e-01 -1.</alpha>
      <index>
        2 10 14 3 15 16 17 5 7 12</index></_>
    <_>
      <sv_count>8</sv_count>
      <rho>-7.0350922813534933e-01</rho>
      <alpha>
        1.4214916254450405e-01 1.6154580142151750e-01
        1.3267026654393085e-01 1.2955864351855223e-01
        1.4800187723657446e-01 1.8772619701371107e-01
        9.8348051721209737e-02 -1.</alpha>
      <index>
        2 10 14 3 15 16 17 6</index></_>
    <_>
      <sv_count>8</sv_count>
      <rho>-7.0350922813534933e-01</rho>
      <alpha>
        1.4214916254450405e-01 1.6154580142151750e-01
        1.3267026654393085e-01 1.2955864351855223e-01
        1.4800187723657446e-01 1.8772619701371107e-01
        9.8348051721209737e-02 -1.</alpha>
      <index>
        2 10 14 3 15 16 17 8</index></_>
    <_>
      <sv_count>7</sv_count>
      <rho>-1.3514181870675226e-01</rho>
      <alpha>
        4.2329780624857938e-01 5.0760412936234633e-01
        5.3041329831936446e-01 5.4546000309646125e-01
        -9.9972005426173560e-01 -7.0551827650157800e-03 -1.</alpha>
      <index>
        1 4 9 13 5 7 12</index></_>
    <_>
      <sv_count>5</sv_count>
      <rho>-5.6903064469562004e-01</rho>
      <alpha>
        2.1093449044417689e-01 2.5294606460465852e-01
        2.6430800098410034e-01 2.7181144396706419e-01 -1.</alpha>
      <index>
        1 4 9 13 6</index></_>
    <_>
      <sv_count>3</sv_count>
      <rho>-9.1924805939197540e-01</rho>
      <alpha>
        6.5693601581991978e-01 3.4306398418008027e-01 -1.</alpha>
      <index>
        1 11 8</index></_>
    <_>
      <sv_count>3</sv_count>
      <rho>-4.3581636250019073e-01</rho>
      <alpha>
        4.9999998290431136e-01 5.0000001709568864e-01 -1.</alpha>
      <index>
        5 12 6</index></_>
    <_>
      <sv_count>3</sv_count>
      <rho>-4.3581636250019073e-01</rho>
      <alpha>
        4.9999998290431136e-01 5.0000001709568864e-01 -1.</alpha>
      <index>
        5 12 8</index></_>
    <_>
      <sv_count>2</sv_count>
      <rho>0.</rho>
      <alpha>
        1. -1.</alpha>
      <index>
        6 8</index></_></decision_functions></opencv_ml_svm>
</opencv_storage>
